<?xml version="1.0"?>
<opencv_storage>
<my_svm type_id="opencv-ml-svm">
  <svm_type>C_SVC</svm_type>
  <kernel><type>LINEAR</type></kernel>
  <C>1.</C>
  <term_criteria><epsilon>2.2204460492503131e-16</epsilon>
    <iterations>100</iterations></term_criteria>
  <var_all>100</var_all>
  <var_count>100</var_count>
  <class_count>2</class_count>
  <class_labels type_id="opencv-matrix">
    <rows>1</rows>
    <cols>2</cols>
    <dt>i</dt>
    <data>
      0 1</data></class_labels>
  <sv_total>1</sv_total>
  <support_vectors>
    <_>
      -3.71971577e-01 -9.73519012e-02 -1.05038536e+00 -3.26768339e-01 0.
      0. 0. 0. 0. 0. -7.43399858e-01 -6.99999988e-01 0. 0. 0. 0. 0. 0.
      0. 0. -8.57119799e-01 -7.75423050e-02 -8.79916847e-01
      -2.81446069e-01 0. 0. 0. 0. 0. 0. -1.33481753e+00 -5.12788951e-01
      0. 0. 0. 0. 0. 0. 0. 0. -1.09978247e+00 3.85872535e-02
      -4.89782393e-01 0. 0. 0. 0. 0. 0. 0. 0. 0. 0. 0. 0. 0. 0. 0. 0. 0.
      -6.83480680e-01 0. 0. 0. 0. 0. 0. 0. 0. 0. -4.68816906e-01
      -3.70677635e-02 7.59362206e-02 -6.49999976e-01 0. 0. 0. 0. 0. 0.
      -1.28144670e+00 4.57695872e-02 -2.93726325e-01 -3.93320806e-02
      3.88750583e-01 5.43107450e-01 0. 0. 0. 0. -9.30919170e-01
      -4.24240083e-01 2.01595828e-01 -3.81473713e-02 -1.15550030e-02
      -4.65821058e-01 7.54457414e-02 2.19621882e-01 -3.48766476e-01
      -2.87219435e-01</_></support_vectors>
  <decision_functions>
    <_>
      <sv_count>1</sv_count>
      <rho>-5.8514476563020623e-01</rho>
      <alpha>
        1.</alpha>
      <index>
        0</index></_></decision_functions></my_svm>
</opencv_storage>
